digraph Tree {
node [shape=box, style="filled, rounded", color="black", fontname="helvetica"] ;
edge [fontname="helvetica"] ;
0 [label=<Saturated_fatty_acids &le; 7.15<br/>entropy = 1.992<br/>samples = 428<br/>value = [18, 39, 151, 69, 151]<br/>class = d>, fillcolor="#ffffff"] ;
1 [label=<Sugars &le; 30.85<br/>entropy = 1.605<br/>samples = 237<br/>value = [18, 39, 31, 3, 146]<br/>class = c>, fillcolor="#f194dd"] ;
0 -> 1 [labeldistance=2.5, labelangle=45, headlabel="True"] ;
2 [label=<Saturated_fatty_acids &le; 3.05<br/>entropy = 1.421<br/>samples = 211<br/>value = [18, 38, 13, 1, 141]<br/>class = c>, fillcolor="#f089d9"] ;
1 -> 2 ;
3 [label=<Sugars &le; 26.5<br/>entropy = 1.594<br/>samples = 105<br/>value = [16, 35, 3, 0, 51]<br/>class = c>, fillcolor="#f9d2f1"] ;
2 -> 3 ;
4 [label=<Salt &le; 0.425<br/>entropy = 1.691<br/>samples = 77<br/>value = [16, 35, 3, 0, 23]<br/>class = b>, fillcolor="#e2f9d3"] ;
3 -> 4 ;
5 [label=<Sugars &le; 8.4<br/>entropy = 1.415<br/>samples = 57<br/>value = [15, 32, 0, 0, 10]<br/>class = b>, fillcolor="#caf4af"] ;
4 -> 5 ;
6 [label=<entropy = 0.544<br/>samples = 8<br/>value = [7, 1, 0, 0, 0]<br/>class = a>, fillcolor="#e99355"] ;
5 -> 6 ;
7 [label=<entropy = 1.313<br/>samples = 49<br/>value = [8, 31, 0, 0, 10]<br/>class = b>, fillcolor="#b8f194"] ;
5 -> 7 ;
8 [label=<Energy &le; 356.5<br/>entropy = 1.441<br/>samples = 20<br/>value = [1, 3, 3, 0, 13]<br/>class = c>, fillcolor="#f08bda"] ;
4 -> 8 ;
9 [label=<entropy = 1.918<br/>samples = 6<br/>value = [1, 2, 2, 0, 1]<br/>class = b>, fillcolor="#ffffff"] ;
8 -> 9 ;
10 [label=<entropy = 0.735<br/>samples = 14<br/>value = [0, 1, 1, 0, 12]<br/>class = c>, fillcolor="#e957ca"] ;
8 -> 10 ;
11 [label=<entropy = 0.0<br/>samples = 28<br/>value = [0, 0, 0, 0, 28]<br/>class = c>, fillcolor="#e539c0"] ;
3 -> 11 ;
12 [label=<Sugars &le; 12.5<br/>entropy = 0.839<br/>samples = 106<br/>value = [2, 3, 10, 1, 90]<br/>class = c>, fillcolor="#e95aca"] ;
2 -> 12 ;
13 [label=<Energy &le; 400.0<br/>entropy = 1.681<br/>samples = 18<br/>value = [2, 3, 1, 1, 11]<br/>class = c>, fillcolor="#f195dd"] ;
12 -> 13 ;
14 [label=<entropy = 1.371<br/>samples = 5<br/>value = [1, 3, 0, 1, 0]<br/>class = b>, fillcolor="#bdf29c"] ;
13 -> 14 ;
15 [label=<Proteins &le; 12.21<br/>entropy = 0.773<br/>samples = 13<br/>value = [1, 0, 1, 0, 11]<br/>class = c>, fillcolor="#e95acb"] ;
13 -> 15 ;
16 [label=<entropy = 0.0<br/>samples = 8<br/>value = [0, 0, 0, 0, 8]<br/>class = c>, fillcolor="#e539c0"] ;
15 -> 16 ;
17 [label=<entropy = 1.371<br/>samples = 5<br/>value = [1, 0, 1, 0, 3]<br/>class = c>, fillcolor="#f29ce0"] ;
15 -> 17 ;
18 [label=<Salt &le; 0.27<br/>entropy = 0.476<br/>samples = 88<br/>value = [0, 0, 9, 0, 79]<br/>class = c>, fillcolor="#e850c7"] ;
12 -> 18 ;
19 [label=<Fiber &le; 0.65<br/>entropy = 0.264<br/>samples = 67<br/>value = [0, 0, 3, 0, 64]<br/>class = c>, fillcolor="#e642c3"] ;
18 -> 19 ;
20 [label=<entropy = 0.985<br/>samples = 7<br/>value = [0, 0, 3, 0, 4]<br/>class = c>, fillcolor="#f8ceef"] ;
19 -> 20 ;
21 [label=<entropy = 0.0<br/>samples = 60<br/>value = [0, 0, 0, 0, 60]<br/>class = c>, fillcolor="#e539c0"] ;
19 -> 21 ;
22 [label=<Proteins &le; 8.15<br/>entropy = 0.863<br/>samples = 21<br/>value = [0, 0, 6, 0, 15]<br/>class = c>, fillcolor="#ef88d9"] ;
18 -> 22 ;
23 [label=<entropy = 0.0<br/>samples = 6<br/>value = [0, 0, 0, 0, 6]<br/>class = c>, fillcolor="#e539c0"] ;
22 -> 23 ;
24 [label=<entropy = 0.971<br/>samples = 15<br/>value = [0, 0, 6, 0, 9]<br/>class = c>, fillcolor="#f6bdea"] ;
22 -> 24 ;
25 [label=<Saturated_fatty_acids &le; 2.9<br/>entropy = 1.29<br/>samples = 26<br/>value = [0, 1, 18, 2, 5]<br/>class = d>, fillcolor="#84efdb"] ;
1 -> 25 ;
26 [label=<Fiber &le; 2.15<br/>entropy = 1.296<br/>samples = 13<br/>value = [0, 1, 7, 0, 5]<br/>class = d>, fillcolor="#cef8f0"] ;
25 -> 26 ;
27 [label=<entropy = 0.0<br/>samples = 5<br/>value = [0, 0, 5, 0, 0]<br/>class = d>, fillcolor="#39e5c5"] ;
26 -> 27 ;
28 [label=<entropy = 1.299<br/>samples = 8<br/>value = [0, 1, 2, 0, 5]<br/>class = c>, fillcolor="#f29ce0"] ;
26 -> 28 ;
29 [label=<Salt &le; 0.825<br/>entropy = 0.619<br/>samples = 13<br/>value = [0, 0, 11, 2, 0]<br/>class = d>, fillcolor="#5dead0"] ;
25 -> 29 ;
30 [label=<entropy = 0.0<br/>samples = 8<br/>value = [0, 0, 8, 0, 0]<br/>class = d>, fillcolor="#39e5c5"] ;
29 -> 30 ;
31 [label=<entropy = 0.971<br/>samples = 5<br/>value = [0, 0, 3, 2, 0]<br/>class = d>, fillcolor="#bdf6ec"] ;
29 -> 31 ;
32 [label=<Sugars &le; 31.6<br/>entropy = 1.089<br/>samples = 191<br/>value = [0, 0, 120, 66, 5]<br/>class = d>, fillcolor="#a9f4e6"] ;
0 -> 32 [labeldistance=2.5, labelangle=-45, headlabel="False"] ;
33 [label=<Fiber &le; 2.85<br/>entropy = 0.723<br/>samples = 133<br/>value = [0, 0, 112, 18, 3]<br/>class = d>, fillcolor="#5dead0"] ;
32 -> 33 ;
34 [label=<Energy &le; 364.5<br/>entropy = 0.918<br/>samples = 24<br/>value = [0, 0, 8, 16, 0]<br/>class = e>, fillcolor="#9e9cf2"] ;
33 -> 34 ;
35 [label=<entropy = 0.0<br/>samples = 7<br/>value = [0, 0, 7, 0, 0]<br/>class = d>, fillcolor="#39e5c5"] ;
34 -> 35 ;
36 [label=<Fiber &le; 2.5<br/>entropy = 0.323<br/>samples = 17<br/>value = [0, 0, 1, 16, 0]<br/>class = e>, fillcolor="#4845e7"] ;
34 -> 36 ;
37 [label=<entropy = 0.0<br/>samples = 12<br/>value = [0, 0, 0, 12, 0]<br/>class = e>, fillcolor="#3c39e5"] ;
36 -> 37 ;
38 [label=<entropy = 0.722<br/>samples = 5<br/>value = [0, 0, 1, 4, 0]<br/>class = e>, fillcolor="#6d6aec"] ;
36 -> 38 ;
39 [label=<Sugars &le; 13.66<br/>entropy = 0.313<br/>samples = 109<br/>value = [0, 0, 104, 2, 3]<br/>class = d>, fillcolor="#42e6c8"] ;
33 -> 39 ;
40 [label=<Fiber &le; 8.85<br/>entropy = 0.75<br/>samples = 14<br/>value = [0, 0, 11, 0, 3]<br/>class = d>, fillcolor="#6fecd5"] ;
39 -> 40 ;
41 [label=<entropy = 0.0<br/>samples = 8<br/>value = [0, 0, 8, 0, 0]<br/>class = d>, fillcolor="#39e5c5"] ;
40 -> 41 ;
42 [label=<entropy = 1.0<br/>samples = 6<br/>value = [0, 0, 3, 0, 3]<br/>class = d>, fillcolor="#ffffff"] ;
40 -> 42 ;
43 [label=<Sugars &le; 28.5<br/>entropy = 0.147<br/>samples = 95<br/>value = [0, 0, 93, 2, 0]<br/>class = d>, fillcolor="#3de6c6"] ;
39 -> 43 ;
44 [label=<entropy = 0.0<br/>samples = 80<br/>value = [0, 0, 80, 0, 0]<br/>class = d>, fillcolor="#39e5c5"] ;
43 -> 44 ;
45 [label=<Sugars &le; 29.05<br/>entropy = 0.567<br/>samples = 15<br/>value = [0, 0, 13, 2, 0]<br/>class = d>, fillcolor="#57e9ce"] ;
43 -> 45 ;
46 [label=<entropy = 0.918<br/>samples = 6<br/>value = [0, 0, 4, 2, 0]<br/>class = d>, fillcolor="#9cf2e2"] ;
45 -> 46 ;
47 [label=<entropy = 0.0<br/>samples = 9<br/>value = [0, 0, 9, 0, 0]<br/>class = d>, fillcolor="#39e5c5"] ;
45 -> 47 ;
48 [label=<Saturated_fatty_acids &le; 9.6<br/>entropy = 0.788<br/>samples = 58<br/>value = [0, 0, 8, 48, 2]<br/>class = e>, fillcolor="#6361ea"] ;
32 -> 48 ;
49 [label=<entropy = 1.379<br/>samples = 7<br/>value = [0, 0, 4, 1, 2]<br/>class = d>, fillcolor="#b0f5e8"] ;
48 -> 49 ;
50 [label=<Sugars &le; 35.65<br/>entropy = 0.397<br/>samples = 51<br/>value = [0, 0, 4, 47, 0]<br/>class = e>, fillcolor="#4d4ae7"] ;
48 -> 50 ;
51 [label=<Salt &le; 0.08<br/>entropy = 0.863<br/>samples = 14<br/>value = [0, 0, 4, 10, 0]<br/>class = e>, fillcolor="#8a88ef"] ;
50 -> 51 ;
52 [label=<entropy = 0.918<br/>samples = 6<br/>value = [0, 0, 4, 2, 0]<br/>class = d>, fillcolor="#9cf2e2"] ;
51 -> 52 ;
53 [label=<entropy = 0.0<br/>samples = 8<br/>value = [0, 0, 0, 8, 0]<br/>class = e>, fillcolor="#3c39e5"] ;
51 -> 53 ;
54 [label=<entropy = 0.0<br/>samples = 37<br/>value = [0, 0, 0, 37, 0]<br/>class = e>, fillcolor="#3c39e5"] ;
50 -> 54 ;
}
